<?xml version="1.0"?>
<opencv_storage>
<stage10>
  <maxWeakCount>5</maxWeakCount>
  <stageThreshold>-3.7876480817794800e-01</stageThreshold>
  <weakClassifiers>
    <_>
      <internalNodes>
        0 -1 135914 -3.2223269343376160e-02</internalNodes>
      <leafValues>
        1. -4.1935482621192932e-01</leafValues></_>
    <_>
      <internalNodes>
        0 -1 3203 -1.7543658032082021e-05</internalNodes>
      <leafValues>
        -9.0983325242996216e-01 4.8063471913337708e-01</leafValues></_>
    <_>
      <internalNodes>
        0 -1 39917 3.2477034255862236e-03</internalNodes>
      <leafValues>
        -4.1521042585372925e-01 9.2433363199234009e-01</leafValues></_>
    <_>
      <internalNodes>
        0 -1 288846 -3.5931327147409320e-04</internalNodes>
      <leafValues>
        7.8523302078247070e-01 -4.6695518493652344e-01</leafValues></_>
    <_>
      <internalNodes>
        0 -1 345020 -2.1756515707238577e-05</internalNodes>
      <leafValues>
        -6.8525928258895874e-01 5.8040070533752441e-01</leafValues></_></weakClassifiers></stage10>
</opencv_storage>
